{"learner":{"attributes":{"scikit_learn":"{\"_estimator_type\": \"classifier\"}"},"feature_names":[],"feature_types":[],"gradient_booster":{"model":{"gbtree_model_param":{"num_parallel_tree":"1","num_trees":"100"},"iteration_indptr":[0,1,2,3,4,5,6,7,8,9,10,11,12,13,14,15,16,17,18,19,20,21,22,23,24,25,26,27,28,29,30,31,32,33,34,35,36,37,38,39,40,41,42,43,44,45,46,47,48,49,50,51,52,53,54,55,56,57,58,59,60,61,62,63,64,65,66,67,68,69,70,71,72,73,74,75,76,77,78,79,80,81,82,83,84,85,86,87,88,89,90,91,92,93,94,95,96,97,98,99,100],"tree_info":[0,0,0,0,0,0,0,0,0,0,0,0,0,0,0,0,0,0,0,0,0,0,0,0,0,0,0,0,0,0,0,0,0,0,0,0,0,0,0,0,0,0,0,0,0,0,0,0,0,0,0,0,0,0,0,0,0,0,0,0,0,0,0,0,0,0,0,0,0,0,0,0,0,0,0,0,0,0,0,0,0,0,0,0,0,0,0,0,0,0,0,0,0,0,0,0,0,0,0,0],"trees":[{"base_weights":[1.4507752E-7,-2.0751731E0,8.2130694E-1,-4.3778047E-1,-8.530171E-1,-3.5887438E-1,1.1705612E0,2.6841623E-1,-6.13613E-1,-5.4861647E-1,2.3452535E-1,3.8285795E-1,-5.8693398E-2],"categories":[],"categories_nodes":[],"categories_segments":[],"categories_sizes":[],"default_left":[0,0,0,0,0,0,0,0,0,0,0,0,0],"id":0,"left_children":[1,3,5,7,-1,9,11,-1,-1,-1,-1,-1,-1],"loss_changes":[5.4921715E1,1.0248821E1,9.9361725E0,1.0612608E1,0E0,1.1551568E1,2.854517E0,0E0,0E0,0E0,0E0,0E0,0E0],"parents":[2147483647,0,0,1,1,2,2,3,3,5,5,6,6],"right_children":[2,4,6,8,-1,10,12,-1,-1,-1,-1,-1,-1],"split_conditions":[-6.2893206E-1,-6.0821825E-1,-8.8342965E-1,-6.1404962E-2,-8.530171E-1,-6.630301E-1,2.813497E-1,2.6841623E-1,-6.13613E-1,-5.4861647E-1,2.3452535E-1,3.8285795E-1,-5.8693398E-2],"split_indices":[21,1,5,16,0,0,0,0,0,0,0,0,0],"split_type":[0,0,0,0,0,0,0,0,0,0,0,0,0],"sum_hessian":[3.0224361E1,8.137328E0,2.2087034E1,3.0999346E0,5.0373936E0,5.0373936E0,1.704964E1,1.9374591E0,1.1624755E0,1.9374591E0,3.0999346E0,1.5887165E1,1.1624755E0],"tree_param":{"num_deleted":"0","num_feature":"22","num_nodes":"13","size_leaf_vector":"1"}},{"base_weights":[1.2981985E-2,-1.177269E0,7.956723E-1,-4.7001883E-1,-5.5291826E-1,-1.3318852E-1,1.1009661E0,7.636959E-1,-1.387438E0,-3.6011863E-1,6.862251E-1,6.566072E-2,3.4891683E-1,2.704069E-1,6.497771E-2,-5.3508604E-1,-3.948881E-2,2.4938202E-1,4.4829052E-2],"categories":[],"categories_nodes":[],"categories_segments":[],"categories_sizes":[],"default_left":[0,0,0,0,0,0,0,0,0,0,0,0,0,0,0,0,0,0,0],"id":1,"left_children":[1,3,5,7,-1,9,11,13,15,-1,17,-1,-1,-1,-1,-1,-1,-1,-1],"loss_changes":[2.8668709E1,4.8844604E0,5.4085207E0,9.281553E0,0E0,5.617809E0,5.162296E-1,8.668041E-2,2.0146627E0,0E0,1.6677904E-1,0E0,0E0,0E0,0E0,0E0,0E0,0E0,0E0],"parents":[2147483647,0,0,1,1,2,2,3,3,5,5,6,6,7,7,8,8,10,10],"right_children":[2,4,6,8,-1,10,12,14,16,-1,18,-1,-1,-1,-1,-1,-1,-1,-1],"split_conditions":[-4.0227407E-1,-4.7402757E-1,-8.2380867E-1,1.9330215E-1,-5.5291826E-1,-4.2932057E-1,-3.5584554E-1,-7.051082E-1,-2.859652E-1,-3.6011863E-1,-2.8561115E-1,6.566072E-2,3.4891683E-1,2.704069E-1,6.497771E-2,-5.3508604E-1,-3.948881E-2,2.4938202E-1,4.4829052E-2],"split_indices":[18,1,8,17,0,20,18,21,20,0,0,0,0,0,0,0,0,0,0],"split_type":[0,0,0,0,0,0,0,0,0,0,0,0,0,0,0,0,0,0,0],"sum_hessian":[2.8768198E1,1.1212707E1,1.7555492E1,6.2642946E0,4.9484124E0,4.4821687E0,1.3073323E1,2.7430685E0,3.521226E0,1.7447963E0,2.7373724E0,1.1572715E0,1.1916052E1,1.6742846E0,1.0687838E0,2.3572621E0,1.1639639E0,1.7231661E0,1.0142062E0],"tree_param":{"num_deleted":"0","num_feature":"22","num_nodes":"19","size_leaf_vector":"1"}},{"base_weights":[1.3918347E-2,-6.565814E-1,9.5087105E-1,-5.0157707E-2,-4.4004798E-1,-8.552778E-3,3.2249284E-1,-1.0147488E0,9.1178614E-1,-3.5182532E-2,-4.2136833E-1,2.9935935E-1,8.062042E-2],"categories":[],"categories_nodes":[],"categories_segments":[],"categories_sizes":[],"default_left":[0,0,0,0,0,0,0,0,0,0,0,0,0],"id":2,"left_children":[1,3,5,7,-1,-1,-1,9,11,-1,-1,-1,-1],"loss_changes":[1.7569729E1,7.9422464E0,1.4478235E0,1.0543547E1,0E0,0E0,0E0,1.8115945E0,4.8279285E-2,0E0,0E0,0E0,0E0],"parents":[2147483647,0,0,1,1,2,2,3,3,7,7,8,8],"right_children":[2,4,6,8,-1,-1,-1,10,12,-1,-1,-1,-1],"split_conditions":[-4.182359E-1,1.6767576E-1,-8.412943E-1,-4.4082853E-1,-4.4004798E-1,-8.552778E-3,3.2249284E-1,-8.926401E-1,-8.477842E-1,-3.5182532E-2,-4.2136833E-1,2.9935935E-1,8.062042E-2],"split_indices":[21,0,10,0,0,0,0,1,5,0,0,0,0],"split_type":[0,0,0,0,0,0,0,0,0,0,0,0,0],"sum_hessian":[2.59734E1,1.5313808E1,1.0659591E1,9.365874E0,5.947934E0,1.2854764E0,9.374115E0,4.6490927E0,4.716781E0,1.8017447E0,2.847348E0,3.67331E0,1.0434711E0],"tree_param":{"num_deleted":"0","num_feature":"22","num_nodes":"13","size_leaf_vector":"1"}},{"base_weights":[1.5740376E-2,-5.3148687E-1,8.642565E-1,-3.596507E-2,-1.1940479E0,-2.5665106E-2,3.0435148E-1,-7.961701E-1,8.173519E-1,-1.0421474E-1,-3.9115033E-1,-1.0622046E0,3.216532E-2,2.714311E-1,6.987712E-2,-3.8230054E-2,-3.9078662E-1],"categories":[],"categories_nodes":[],"categories_segments":[],"categories_sizes":[],"default_left":[0,0,0,0,0,0,0,0,0,0,0,0,0,0,0,0,0],"id":3,"left_children":[1,3,5,7,9,-1,-1,11,13,-1,-1,15,-1,-1,-1,-1,-1],"loss_changes":[1.1513282E1,4.9118705E0,1.4731097E0,6.9206E0,1.4442062E-1,0E0,0E0,1.4640987E0,4.7118664E-2,0E0,0E0,8.299632E-1,0E0,0E0,0E0,0E0,0E0],"parents":[2147483647,0,0,1,1,2,2,3,3,4,4,7,7,8,8,11,11],"right_children":[2,4,6,8,10,-1,-1,12,14,-1,-1,16,-1,-1,-1,-1,-1],"split_conditions":[-4.182359E-1,1.6767576E-1,-1.631335E-1,-4.4082853E-1,-6.378701E-1,-2.5665106E-2,3.0435148E-1,-9.593214E-1,-8.477842E-1,-1.0421474E-1,-3.9115033E-1,-8.9580685E-1,3.216532E-2,2.714311E-1,6.987712E-2,-3.8230054E-2,-3.9078662E-1],"split_indices":[21,0,19,0,16,0,0,14,5,0,0,3,0,0,0,0,0],"split_type":[0,0,0,0,0,0,0,0,0,0,0,0,0,0,0,0,0],"sum_hessian":[2.280616E1,1.4091719E1,8.714441E0,8.665313E0,5.426406E0,1.2490549E0,7.465386E0,4.6180997E0,4.0472136E0,1.1008543E0,4.3255515E0,3.43171E0,1.1863896E0,3.0437953E0,1.0034182E0,1.0150656E0,2.4166443E0],"tree_param":{"num_deleted":"0","num_feature":"22","num_nodes":"17","size_leaf_vector":"1"}},{"base_weights":[8.009766E-3,-6.7568463E-1,5.6181717E-1,-2.2635739E-1,-3.281079E-1,-1.2991591E-1,2.741657E-1,5.7822007E-1,-7.8476876E-1,-2.4227808E-1,3.1934297E-1,4.7245156E-2,2.1451795E-1,-3.557875E-2,-2.9621127E-1,-1.22882985E-1,2.2561324E-1],"categories":[],"categories_nodes":[],"categories_segments":[],"categories_sizes":[],"default_left":[0,0,0,0,0,0,0,0,0,0,0,0,0,0,0,0,0],"id":4,"left_children":[1,3,5,7,-1,9,-1,11,13,-1,15,-1,-1,-1,-1,-1,-1],"loss_changes":[8.290089E0,1.5937767E0,3.062719E0,3.1430974E0,0E0,1.7658249E0,0E0,6.1729193E-2,4.170606E-1,0E0,1.4735274E0,0E0,0E0,0E0,0E0,0E0,0E0],"parents":[2147483647,0,0,1,1,2,2,3,3,5,5,7,7,8,8,10,10],"right_children":[2,4,6,8,-1,10,-1,12,14,-1,16,-1,-1,-1,-1,-1,-1],"split_conditions":[-4.0227407E-1,-4.7402757E-1,-1.23860076E-1,1.9330215E-1,-3.281079E-1,-1.3138331E-1,2.741657E-1,-9.287365E-1,-3.0271757E-1,-2.4227808E-1,-4.7983065E-1,4.7245156E-2,2.1451795E-1,-3.557875E-2,-2.9621127E-1,-1.22882985E-1,2.2561324E-1],"split_indices":[18,1,19,17,0,17,0,10,16,0,20,0,0,0,0,0,0],"split_type":[0,0,0,0,0,0,0,0,0,0,0,0,0,0,0,0,0],"sum_hessian":[1.989209E1,8.803631E0,1.1088459E1,4.9857936E0,3.8178372E0,3.9529061E0,7.1355534E0,2.0281274E0,2.9576662E0,1.2578733E0,2.6950328E0,1.0256038E0,1.0025237E0,1.0594543E0,1.8982118E0,1.0237427E0,1.6712902E0],"tree_param":{"num_deleted":"0","num_feature":"22","num_nodes":"17","size_leaf_vector":"1"}},{"base_weights":[-2.0061003E-3,-5.419049E-1,5.827343E-1,-2.8602636E-1,-2.2746599E-1,2.9228622E-1,-4.191834E-1,-6.7893845E-1,2.457896E-1,-2.4193983E-1,6.2092774E-2,-5.5101708E-2,-2.4306227E-1,2.2930655E-1,-1.3605726E-1],"categories":[],"categories_nodes":[],"categories_segments":[],"categories_sizes":[],"default_left":[0,0,0,0,0,0,0,0,0,0,0,0,0,0,0],"id":5,"left_children":[1,3,5,-1,7,-1,9,11,13,-1,-1,-1,-1,-1,-1],"loss_changes":[6.1257787E0,1.0883265E0,4.0633836E0,0E0,1.6691642E0,0E0,9.713159E-1,1.0241008E-1,1.8577613E0,0E0,0E0,0E0,0E0,0E0,0E0],"parents":[2147483647,0,0,1,1,2,2,4,4,6,6,7,7,8,8],"right_children":[2,4,6,-1,8,-1,10,12,14,-1,-1,-1,-1,-1,-1],"split_conditions":[-8.8342965E-1,-4.558933E-1,-4.887045E-1,-2.8602636E-1,-2.3953275E-1,2.9228622E-1,-3.567633E-1,3.0849034E-1,-8.8246506E-1,-2.4193983E-1,6.2092774E-2,-5.5101708E-2,-2.4306227E-1,2.2930655E-1,-1.3605726E-1],"split_indices":[5,20,1,0,19,0,18,0,3,0,0,0,0,0,0],"split_type":[0,0,0,0,0,0,0,0,0,0,0,0,0,0,0],"sum_hessian":[1.7403486E1,9.086786E0,8.3167E0,3.0556393E0,6.0311475E0,5.999608E0,2.3170915E0,2.8641841E0,3.166963E0,1.2537094E0,1.063382E0,1.1027639E0,1.7614202E0,1.7650843E0,1.401879E0],"tree_param":{"num_deleted":"0","num_feature":"22","num_nodes":"15","size_leaf_vector":"1"}},{"base_weights":[-1.6085524E-2,-3.920441E-1,6.8193394E-1,-4.2447407E-2,-2.699598E-1,-3.4166813E-2,2.589543E-1,-6.0679346E-1,4.9397063E-1,-2.7350504E-2,-2.5884432E-1,-1.0284739E-1,2.5077146E-1],"categories":[],"categories_nodes":[],"categories_segments":[],"categories_sizes":[],"default_left":[0,0,0,0,0,0,0,0,0,0,0,0,0],"id":6,"left_children":[1,3,5,7,-1,-1,-1,9,11,-1,-1,-1,-1],"loss_changes":[4.5277123E0,1.9477546E0,9.7069097E-1,2.6231105E0,0E0,0E0,0E0,4.7430766E-1,1.5701526E0,0E0,0E0,0E0,0E0],"parents":[2147483647,0,0,1,1,2,2,3,3,7,7,8,8],"right_children":[2,4,6,8,-1,-1,-1,10,12,-1,-1,-1,-1],"split_conditions":[-4.182359E-1,-4.7402757E-1,-8.412943E-1,-4.4082853E-1,-2.699598E-1,-3.4166813E-2,2.589543E-1,-8.926401E-1,-7.349988E-1,-2.7350504E-2,-2.5884432E-1,-1.0284739E-1,2.5077146E-1],"split_indices":[21,1,10,0,0,0,0,1,21,0,0,0,0],"split_type":[0,0,0,0,0,0,0,0,0,0,0,0,0],"sum_hessian":[1.52345085E1,1.018639E1,5.048119E0,6.6748505E0,3.511539E0,1.0053664E0,4.0427523E0,3.1888165E0,3.486034E0,1.5079361E0,1.6808805E0,1.010498E0,2.4755359E0],"tree_param":{"num_deleted":"0","num_feature":"22","num_nodes":"13","size_leaf_vector":"1"}},{"base_weights":[-2.018218E-2,-4.3745685E-1,4.9869058E-1,5.4269087E-2,-5.640626E-1,2.6115954E-1,-8.9768566E-2,-8.0753297E-1,-8.044669E-2,-2.9713425E-1,-3.3804484E-2,1.0617163E-1,-1.7346506E-1],"categories":[],"categories_nodes":[],"categories_segments":[],"categories_sizes":[],"default_left":[0,0,0,0,0,0,0,0,0,0,0,0,0],"id":7,"left_children":[1,3,5,-1,7,-1,-1,9,11,-1,-1,-1,-1],"loss_changes":[3.3229463E0,7.659793E-1,2.2955935E0,0E0,7.9250693E-1,0E0,0E0,4.8997235E-1,9.719973E-1,0E0,0E0,0E0,0E0],"parents":[2147483647,0,0,1,1,2,2,4,4,7,7,8,8],"right_children":[2,4,6,-1,8,-1,-1,10,12,-1,-1,-1,-1],"split_conditions":[-8.8342965E-1,-9.5902306E-1,-4.887045E-1,5.4269087E-2,-1.2286057E-1,2.6115954E-1,-8.9768566E-2,3.5180035E-1,-8.576874E-1,-2.9713425E-1,-3.3804484E-2,1.0617163E-1,-1.7346506E-1],"split_indices":[5,11,1,0,19,0,0,17,3,0,0,0,0],"split_type":[0,0,0,0,0,0,0,0,0,0,0,0,0],"sum_hessian":[1.334001E1,7.4808555E0,5.859154E0,1.1984919E0,6.2823634E0,3.9345827E0,1.9245714E0,3.7331657E0,2.549198E0,2.6184652E0,1.1147007E0,1.5156589E0,1.0335389E0],"tree_param":{"num_deleted":"0","num_feature":"22","num_nodes":"13","size_leaf_vector":"1"}},{"base_weights":[-2.5593348E-2,-3.2933632E-1,5.89016E-1,-1.8683787E-2,-2.3020878E-1,-1.3408701E-2,2.3283519E-1,-4.7819537E-1,1.8295048E-1,-2.4348794E-1,-7.141326E-2,-1.06169425E-1,7.436998E-2],"categories":[],"categories_nodes":[],"categories_segments":[],"categories_sizes":[],"default_left":[0,0,0,0,0,0,0,0,0,0,0,0,0],"id":8,"left_children":[1,3,5,7,-1,-1,-1,9,-1,-1,11,-1,-1],"loss_changes":[2.6158872E0,1.2543908E0,5.85974E-1,2.1631188E0,0E0,0E0,0E0,5.2577615E-1,0E0,0E0,3.6150283E-1,0E0,0E0],"parents":[2147483647,0,0,1,1,2,2,3,3,7,7,10,10],"right_children":[2,4,6,8,-1,-1,-1,10,-1,-1,12,-1,-1],"split_conditions":[-4.182359E-1,1.6767576E-1,-7.243949E-2,-4.4082853E-1,-2.3020878E-1,-1.3408701E-2,2.3283519E-1,-4.7983065E-1,1.8295048E-1,-2.4348794E-1,-4.3825704E-1,-1.06169425E-1,7.436998E-2],"split_indices":[21,0,19,0,0,0,0,20,0,0,18,0,0],"split_type":[0,0,0,0,0,0,0,0,0,0,0,0,0],"sum_hessian":[1.1973327E1,8.323812E0,3.649515E0,5.479998E0,2.8438134E0,1.0053866E0,2.6441283E0,3.3037727E0,2.1762254E0,1.2686496E0,2.0351229E0,1.0223641E0,1.0127589E0],"tree_param":{"num_deleted":"0","num_feature":"22","num_nodes":"13","size_leaf_vector":"1"}},{"base_weights":[-2.6670797E-2,-5.19638E-1,2.9766658E-1,2.0309959E-2,-2.4756809E-1,-1.7775932E-1,6.499908E-1,8.786004E-2,-4.3539897E-1,5.020882E-2,2.2842546E-1,-1.5863843E-1,-3.7966926E-2],"categories":[],"categories_nodes":[],"categories_segments":[],"categories_sizes":[],"default_left":[0,0,0,0,0,0,0,0,0,0,0,0,0],"id":9,"left_children":[1,3,5,-1,-1,7,9,-1,11,-1,-1,-1,-1],"loss_changes":[2.0197446E0,9.5207775E-1,1.4005646E0,0E0,0E0,6.186562E-1,1.21074796E-1,0E0,2.018112E-2,0E0,0E0,0E0,0E0],"parents":[2147483647,0,0,1,1,2,2,5,5,6,6,8,8],"right_children":[2,4,6,-1,-1,8,10,-1,12,-1,-1,-1,-1],"split_conditions":[-2.2363068E-1,-5.7779884E-1,-2.859652E-1,2.0309959E-2,-2.4756809E-1,-8.9326555E-1,-5.530955E-1,8.786004E-2,-4.7881264E-2,5.020882E-2,2.2842546E-1,-1.5863843E-1,-3.7966926E-2],"split_indices":[19,1,20,0,0,3,21,0,16,0,0,0,0],"split_type":[0,0,0,0,0,0,0,0,0,0,0,0,0],"sum_hessian":[1.066485E1,3.9932592E0,6.6715913E0,1.6330396E0,2.3602195E0,3.0505924E0,3.6209989E0,1.0308414E0,2.019751E0,1.1484926E0,2.4725063E0,1.0039642E0,1.015787E0],"tree_param":{"num_deleted":"0","num_feature":"22","num_nodes":"13","size_leaf_vector":"1"}},{"base_weights":[-2.5715046E-2,-3.5598698E-1,4.1805997E-1,-2.0766439E-1,-7.516068E-2,-7.3205724E-2,2.3386031E-1,-1.6455945E-1,3.2050225E-1,1.7522763E-1,-2.7086169E-2],"categories":[],"categories_nodes":[],"categories_segments":[],"categories_sizes":[],"default_left":[0,0,0,0,0,0,0,0,0,0,0],"id":10,"left_children":[1,3,5,-1,7,-1,-1,-1,9,-1,-1],"loss_changes":[1.7152869E0,5.775346E-1,1.391671E0,0E0,1.0663773E0,0E0,0E0,0E0,4.0153173E-1,0E0,0E0],"parents":[2147483647,0,0,1,1,2,2,4,4,8,8],"right_children":[2,4,6,-1,8,-1,-1,-1,10,-1,-1],"split_conditions":[-8.8342965E-1,-6.630301E-1,-1.2473805E-1,-2.0766439E-1,-7.4209034E-1,-7.3205724E-2,2.3386031E-1,-1.6455945E-1,-8.7967867E-1,1.7522763E-1,-2.7086169E-2],"split_indices":[5,0,17,0,21,0,0,0,8,0,0],"split_type":[0,0,0,0,0,0,0,0,0,0,0],"sum_hessian":[9.687734E0,5.667566E0,4.0201674E0,1.9126581E0,3.7549078E0,1.5345001E0,2.4856672E0,1.5336682E0,2.2212398E0,1.0960586E0,1.1251812E0],"tree_param":{"num_deleted":"0","num_feature":"22","num_nodes":"11","size_leaf_vector":"1"}},{"base_weights":[-2.1834878E-2,-2.5723687E-1,4.6773946E-1,-2.0898426E-2,-1.8056789E-1,6.6807834E-3,1.9040085E-1,-1.789239E-1,2.9096702E-1,1.6476503E-1,-7.573113E-2],"categories":[],"categories_nodes":[],"categories_segments":[],"categories_sizes":[],"default_left":[0,0,0,0,0,0,0,0,0,0,0],"id":11,"left_children":[1,3,5,7,-1,-1,-1,-1,9,-1,-1],"loss_changes":[1.2507396E0,5.795177E-1,2.4908918E-1,1.1334199E0,0E0,0E0,0E0,0E0,7.1971023E-1,0E0,0E0],"parents":[2147483647,0,0,1,1,2,2,3,3,8,8],"right_children":[2,4,6,8,-1,-1,-1,-1,10,-1,-1],"split_conditions":[-4.182359E-1,-4.7402757E-1,-9.313747E-1,-4.9853638E-1,-1.8056789E-1,6.6807834E-3,1.9040085E-1,-1.789239E-1,-4.6582878E-2,1.6476503E-1,-7.573113E-2],"split_indices":[21,1,14,20,0,0,0,0,19,0,0],"split_type":[0,0,0,0,0,0,0,0,0,0,0],"sum_hessian":[8.80869E0,6.268958E0,2.539732E0,4.348043E0,1.920915E0,1.0012354E0,1.5384966E0,1.2074383E0,3.1406045E0,2.1216197E0,1.0189848E0],"tree_param":{"num_deleted":"0","num_feature":"22","num_nodes":"11","size_leaf_vector":"1"}},{"base_weights":[-2.3181228E-2,-4.4165775E-1,2.4875459E-1,3.4483308E-3,-2.0480594E-1,-7.7675864E-2,4.710088E-1,1.3800273E-3,1.8278816E-1],"categories":[],"categories_nodes":[],"categories_segments":[],"categories_sizes":[],"default_left":[0,0,0,0,0,0,0,0,0],"id":12,"left_children":[1,3,5,-1,-1,-1,7,-1,-1],"loss_changes":[1.1436057E0,4.3799126E-1,8.1539047E-1,0E0,0E0,0E0,2.9576433E-1,0E0,0E0],"parents":[2147483647,0,0,1,1,2,2,6,6],"right_children":[2,4,6,-1,-1,-1,8,-1,-1],"split_conditions":[-2.2363068E-1,-5.7779884E-1,-9.731356E-1,3.4483308E-3,-2.0480594E-1,-7.7675864E-2,-2.0835358E-1,1.3800273E-3,1.8278816E-1],"split_indices":[19,1,14,0,0,0,17,0,0],"split_type":[0,0,0,0,0,0,0,0,0],"sum_hessian":[8.083941E0,2.9382315E0,5.14571E0,1.3508472E0,1.5873842E0,1.5165741E0,3.6291358E0,1.0662262E0,2.5629096E0],"tree_param":{"num_deleted":"0","num_feature":"22","num_nodes":"9","size_leaf_vector":"1"}},{"base_weights":[-2.8310215E-2,-2.9147768E-1,3.703742E-1,-1.5780462E-1,1.19159315E-2,1.9858493E-1,-4.5183077E-2,-7.762795E-2,7.9714336E-2],"categories":[],"categories_nodes":[],"categories_segments":[],"categories_sizes":[],"default_left":[0,0,0,0,0,0,0,0,0],"id":13,"left_children":[1,3,5,-1,7,-1,-1,-1,-1],"loss_changes":[1.0014482E0,4.111079E-1,6.8096673E-1,0E0,3.0633906E-1,0E0,0E0,0E0,0E0],"parents":[2147483647,0,0,1,1,2,2,4,4],"right_children":[2,4,6,-1,8,-1,-1,-1,-1],"split_conditions":[-9.4245154E-1,-4.2932057E-1,-4.887045E-1,-1.5780462E-1,-5.2467036E-1,1.9858493E-1,-4.5183077E-2,-7.762795E-2,7.9714336E-2],"split_indices":[14,20,1,0,18,0,0,0,0],"split_type":[0,0,0,0,0,0,0,0,0],"sum_hessian":[7.515876E0,4.689371E0,2.8265042E0,2.2309606E0,2.4584107E0,1.6387707E0,1.1877337E0,1.1801907E0,1.27822E0],"tree_param":{"num_deleted":"0","num_feature":"22","num_nodes":"9","size_leaf_vector":"1"}},{"base_weights":[-1.880269E-2,-2.5578457E-1,3.3239743E-1,-4.686153E-1,3.2952767E-2,-4.61098E-2,1.8990032E-1,-1.688487E-1,-3.7910063E-2],"categories":[],"categories_nodes":[],"categories_segments":[],"categories_sizes":[],"default_left":[0,0,0,0,0,0,0,0,0],"id":14,"left_children":[1,3,5,7,-1,-1,-1,-1,-1],"loss_changes":[7.57336E-1,4.707842E-1,6.3641536E-1,4.4820786E-2,0E0,0E0,0E0,0E0,0E0],"parents":[2147483647,0,0,1,1,2,2,3,3],"right_children":[2,4,6,8,-1,-1,-1,-1,-1],"split_conditions":[-8.8342965E-1,-4.4082853E-1,-1.2473805E-1,3.8153297E-1,3.2952767E-2,-4.61098E-2,1.8990032E-1,-1.688487E-1,-3.7910063E-2],"split_indices":[5,0,17,15,0,0,0,0,0],"split_type":[0,0,0,0,0,0,0,0,0],"sum_hessian":[7.0779705E0,4.388437E0,2.6895335E0,2.59577E0,1.7926672E0,1.2144238E0,1.4751096E0,1.53007E0,1.0656999E0],"tree_param":{"num_deleted":"0","num_feature":"22","num_nodes":"9","size_leaf_vector":"1"}},{"base_weights":[-1.5837451E-2,-3.7068042E-1,2.1800397E-1,1.1790329E-2,-1.8125553E-1,-8.911443E-2,1.4080194E-1,-9.19715E-2,4.7421794E-2],"categories":[],"categories_nodes":[],"categories_segments":[],"categories_sizes":[],"default_left":[0,0,0,0,0,0,0,0,0],"id":15,"left_children":[1,3,5,-1,-1,7,-1,-1,-1],"loss_changes":[7.223286E-1,3.5319945E-1,4.501504E-1,0E0,0E0,2.2160703E-1,0E0,0E0,0E0],"parents":[2147483647,0,0,1,1,2,2,5,5],"right_children":[2,4,6,-1,-1,8,-1,-1,-1],"split_conditions":[-2.2363068E-1,-5.7779884E-1,-2.859652E-1,1.1790329E-2,-1.8125553E-1,-5.061761E-1,1.4080194E-1,-9.19715E-2,4.7421794E-2],"split_indices":[19,1,20,0,0,21,0,0,0],"split_type":[0,0,0,0,0,0,0,0,0],"sum_hessian":[6.731286E0,2.4414008E0,4.2898855E0,1.187721E0,1.2536796E0,2.2211726E0,2.068713E0,1.0538394E0,1.167333E0],"tree_param":{"num_deleted":"0","num_feature":"22","num_nodes":"9","size_leaf_vector":"1"}},{"base_weights":[-2.2368751E-2,-1.13976374E-1,1.6774276E-1,-7.345847E-2,1.433545E-1],"categories":[],"categories_nodes":[],"categories_segments":[],"categories_sizes":[],"default_left":[0,0,0,0,0],"id":16,"left_children":[1,-1,3,-1,-1],"loss_changes":[5.6117E-1,0E0,8.1707895E-1,0E0,0E0],"parents":[2147483647,0,0,2,2],"right_children":[2,-1,4,-1,-1],"split_conditions":[-2.1273595E-1,-1.13976374E-1,-9.731356E-1,-7.345847E-2,1.433545E-1],"split_indices":[17,0,14,0,0],"split_type":[0,0,0,0,0],"sum_hessian":[6.3180156E0,1.8466028E0,4.471413E0,2.008903E0,2.4625099E0],"tree_param":{"num_deleted":"0","num_feature":"22","num_nodes":"5","size_leaf_vector":"1"}},{"base_weights":[-2.1001147E-2,-1.9502147E-1,1.0417287E-1,1.131323E-1,-1.4367461E-1,-3.8057473E-2,9.995495E-2],"categories":[],"categories_nodes":[],"categories_segments":[],"categories_sizes":[],"default_left":[0,0,0,0,0,0,0],"id":17,"left_children":[1,3,-1,5,-1,-1,-1],"loss_changes":[5.196829E-1,5.292025E-1,0E0,2.2248703E-1,0E0,0E0,0E0],"parents":[2147483647,0,0,1,1,3,3],"right_children":[2,4,-1,6,-1,-1,-1],"split_conditions":[-4.182359E-1,-8.459168E-1,1.0417287E-1,-9.349108E-1,-1.4367461E-1,-3.8057473E-2,9.995495E-2],"split_indices":[21,10,0,12,0,0,0],"split_type":[0,0,0,0,0,0,0],"sum_hessian":[6.0528917E0,4.429876E0,1.6230156E0,2.4126036E0,2.0172722E0,1.3565911E0,1.0560125E0],"tree_param":{"num_deleted":"0","num_feature":"22","num_nodes":"7","size_leaf_vector":"1"}},{"base_weights":[-1.20680295E-2,-9.804228E-2,1.6475481E-1,4.45132E-1,-1.0993355E-1,1.8977173E-1,1.801299E-2],"categories":[],"categories_nodes":[],"categories_segments":[],"categories_sizes":[],"default_left":[0,0,0,0,0,0,0],"id":18,"left_children":[1,-1,3,5,-1,-1,-1],"loss_changes":[4.3223673E-1,0E0,9.1051114E-1,2.3169327E-1,0E0,0E0,0E0],"parents":[2147483647,0,0,2,2,3,3],"right_children":[2,-1,4,6,-1,-1,-1],"split_conditions":[-6.630301E-1,-9.804228E-2,2.813497E-1,-8.459168E-1,-1.0993355E-1,1.8977173E-1,1.801299E-2],"split_indices":[0,0,0,10,0,0,0],"split_type":[0,0,0,0,0,0,0],"sum_hessian":[5.7991414E0,1.7809253E0,4.018216E0,2.7360854E0,1.2821308E0,1.4080538E0,1.3280315E0],"tree_param":{"num_deleted":"0","num_feature":"22","num_nodes":"7","size_leaf_vector":"1"}},{"base_weights":[-6.490283E-3,-1.7517881E-1,1.042265E-1,-4.3248513E-1,4.7293007E-2,-1.5959048E-1,-3.4951314E-2],"categories":[],"categories_nodes":[],"categories_segments":[],"categories_sizes":[],"default_left":[0,0,0,0,0,0,0],"id":19,"left_children":[1,3,-1,5,-1,-1,-1],"loss_changes":[4.4808286E-1,5.0126505E-1,0E0,3.6078393E-2,0E0,0E0,0E0],"parents":[2147483647,0,0,1,1,3,3],"right_children":[2,4,-1,6,-1,-1,-1],"split_conditions":[-8.081411E-1,3.9624482E-1,1.042265E-1,-1.631335E-1,4.7293007E-2,-1.5959048E-1,-3.4951314E-2],"split_indices":[11,15,0,19,0,0,0],"split_type":[0,0,0,0,0,0,0],"sum_hessian":[5.4860344E0,4.0572224E0,1.4288124E0,2.119319E0,1.9379032E0,1.091976E0,1.027343E0],"tree_param":{"num_deleted":"0","num_feature":"22","num_nodes":"7","size_leaf_vector":"1"}},{"base_weights":[-1.1961021E-2,-1.745146E-1,9.608855E-2,4.541821E-2,-3.56378E-1,-1.5496051E-1,-2.745159E-3],"categories":[],"categories_nodes":[],"categories_segments":[],"categories_sizes":[],"default_left":[0,0,0,0,0,0,0],"id":20,"left_children":[1,3,-1,-1,5,-1,-1],"loss_changes":[3.9623177E-1,3.431121E-1,0E0,0E0,1.859875E-1,0E0,0E0],"parents":[2147483647,0,0,1,1,4,4],"right_children":[2,4,-1,-1,6,-1,-1],"split_conditions":[-4.182359E-1,-8.989835E-1,9.608855E-2,4.541821E-2,-8.921002E-1,-1.5496051E-1,-2.745159E-3],"split_indices":[21,3,0,0,5,0,0],"split_type":[0,0,0,0,0,0,0],"sum_hessian":[5.30141E0,3.8785973E0,1.4228129E0,1.4491626E0,2.4294348E0,1.3288914E0,1.1005434E0],"tree_param":{"num_deleted":"0","num_feature":"22","num_nodes":"7","size_leaf_vector":"1"}},{"base_weights":[-1.2085395E-2,-8.952784E-2,1.8260129E-1,-1.7080564E-2,1.1673878E-1],"categories":[],"categories_nodes":[],"categories_segments":[],"categories_sizes":[],"default_left":[0,0,0,0,0],"id":21,"left_children":[1,-1,3,-1,-1],"loss_changes":[3.9490214E-1,0E0,2.3266983E-1,0E0,0E0],"parents":[2147483647,0,0,2,2],"right_children":[2,-1,4,-1,-1],"split_conditions":[-2.2363068E-1,-8.952784E-2,-8.101391E-1,-1.7080564E-2,1.1673878E-1],"split_indices":[19,0,1,0,0],"split_type":[0,0,0,0,0],"sum_hessian":[5.1063523E0,1.8510367E0,3.2553158E0,1.8425733E0,1.4127424E0],"tree_param":{"num_deleted":"0","num_feature":"22","num_nodes":"5","size_leaf_vector":"1"}},{"base_weights":[-6.3129924E-3,1.457399E-1,-1.0366856E-1,-6.909958E-2,3.9575815E-1,1.6959961E-1,1.17754815E-2],"categories":[],"categories_nodes":[],"categories_segments":[],"categories_sizes":[],"default_left":[0,0,0,0,0,0,0],"id":22,"left_children":[1,3,-1,-1,5,-1,-1],"loss_changes":[3.5796398E-1,5.444471E-1,0E0,0E0,1.7511362E-1,0E0,0E0],"parents":[2147483647,0,0,1,1,4,4],"right_children":[2,4,-1,-1,6,-1,-1],"split_conditions":[2.813497E-1,-6.630301E-1,-1.0366856E-1,-6.909958E-2,-8.3481574E-1,1.6959961E-1,1.17754815E-2],"split_indices":[0,0,0,0,3,0,0],"split_type":[0,0,0,0,0,0,0],"sum_hessian":[4.9631505E0,3.8209758E0,1.1421745E0,1.5572839E0,2.263692E0,1.1370801E0,1.1266118E0],"tree_param":{"num_deleted":"0","num_feature":"22","num_nodes":"7","size_leaf_vector":"1"}},{"base_weights":[-1.286719E-3,-2.4299285E-1,2.1919876E-1,-1.292745E-1,2.3473939E-2,-5.6998514E-2,1.4265494E-1],"categories":[],"categories_nodes":[],"categories_segments":[],"categories_sizes":[],"default_left":[0,0,0,0,0,0,0],"id":23,"left_children":[1,3,5,-1,-1,-1,-1],"loss_changes":[3.585528E-1,2.2731891E-1,4.5969507E-1,0E0,0E0,0E0,0E0],"parents":[2147483647,0,0,1,1,2,2],"right_children":[2,4,6,-1,-1,-1,-1],"split_conditions":[-5.530955E-1,3.8080144E-1,-4.2932057E-1,-1.292745E-1,2.3473939E-2,-5.6998514E-2,1.4265494E-1],"split_indices":[21,15,20,0,0,0,0],"split_type":[0,0,0,0,0,0,0],"sum_hessian":[4.7285357E0,2.20702E0,2.5215158E0,1.1770449E0,1.029975E0,1.0708032E0,1.4507127E0],"tree_param":{"num_deleted":"0","num_feature":"22","num_nodes":"7","size_leaf_vector":"1"}},{"base_weights":[-3.8843344E-3,-1.9006857E-1,7.981242E-2,2.065922E-2,-1.1367664E-1],"categories":[],"categories_nodes":[],"categories_segments":[],"categories_sizes":[],"default_left":[0,0,0,0,0],"id":24,"left_children":[1,3,-1,-1,-1],"loss_changes":[3.2744187E-1,2.1405211E-1,0E0,0E0,0E0],"parents":[2147483647,0,0,1,1],"right_children":[2,4,-1,-1,-1],"split_conditions":[-8.8342965E-1,-9.0246516E-1,7.981242E-2,2.065922E-2,-1.1367664E-1],"split_indices":[5,6,0,0,0],"split_type":[0,0,0,0,0],"sum_hessian":[4.509317E0,2.8436954E0,1.6656214E0,1.4672883E0,1.376407E0],"tree_param":{"num_deleted":"0","num_feature":"22","num_nodes":"5","size_leaf_vector":"1"}},{"base_weights":[-5.394998E-3,1.4357886E-1,-9.610991E-2,-4.993843E-2,1.0343588E-1],"categories":[],"categories_nodes":[],"categories_segments":[],"categories_sizes":[],"default_left":[0,0,0,0,0],"id":25,"left_children":[1,3,-1,-1,-1],"loss_changes":[2.9937586E-1,3.2916403E-1,0E0,0E0,0E0],"parents":[2147483647,0,0,1,1],"right_children":[2,4,-1,-1,-1],"split_conditions":[2.857858E-1,-6.630301E-1,-9.610991E-2,-4.993843E-2,1.0343588E-1],"split_indices":[0,0,0,0,0],"split_type":[0,0,0,0,0],"sum_hessian":[4.399926E0,3.356524E0,1.0434023E0,1.3889617E0,1.9675622E0],"tree_param":{"num_deleted":"0","num_feature":"22","num_nodes":"5","size_leaf_vector":"1"}},{"base_weights":[-1.1541747E-2,-2.1997964E-1,6.998499E-2,2.1116693E-2,-1.18878156E-1],"categories":[],"categories_nodes":[],"categories_segments":[],"categories_sizes":[],"default_left":[0,0,0,0,0],"id":26,"left_children":[1,3,-1,-1,-1],"loss_changes":[3.1931007E-1,1.9943137E-1,0E0,0E0,0E0],"parents":[2147483647,0,0,1,1],"right_children":[2,4,-1,-1,-1],"split_conditions":[-5.061761E-1,-8.181818E-1,6.998499E-2,2.1116693E-2,-1.18878156E-1],"split_indices":[21,4,0,0,0],"split_type":[0,0,0,0,0],"sum_hessian":[4.251582E0,2.3512602E0,1.900322E0,1.1151283E0,1.2361318E0],"tree_param":{"num_deleted":"0","num_feature":"22","num_nodes":"5","size_leaf_vector":"1"}},{"base_weights":[-1.4126427E-2,-8.49416E-2,1.3699652E-1,-5.4623183E-2,1.1261025E-1],"categories":[],"categories_nodes":[],"categories_segments":[],"categories_sizes":[],"default_left":[0,0,0,0,0],"id":27,"left_children":[1,-1,3,-1,-1],"loss_changes":[2.4775715E-1,0E0,3.699286E-1,0E0,0E0],"parents":[2147483647,0,0,2,2],"right_children":[2,-1,4,-1,-1],"split_conditions":[-2.1273595E-1,-8.49416E-2,-9.731356E-1,-5.4623183E-2,1.1261025E-1],"split_indices":[17,0,14,0,0],"split_type":[0,0,0,0,0],"sum_hessian":[4.140172E0,1.175001E0,2.965171E0,1.3689328E0,1.5962383E0],"tree_param":{"num_deleted":"0","num_feature":"22","num_nodes":"5","size_leaf_vector":"1"}},{"base_weights":[-1.4840125E-2,-7.396516E-2,1.493498E-1,-2.9399248E-2,9.721981E-2],"categories":[],"categories_nodes":[],"categories_segments":[],"categories_sizes":[],"default_left":[0,0,0,0,0],"id":28,"left_children":[1,-1,3,-1,-1],"loss_changes":[2.2710152E-1,0E0,1.8517317E-1,0E0,0E0],"parents":[2147483647,0,0,2,2],"right_children":[2,-1,4,-1,-1],"split_conditions":[-2.2363068E-1,-7.396516E-2,-5.061761E-1,-2.9399248E-2,9.721981E-2],"split_indices":[19,0,21,0,0],"split_type":[0,0,0,0,0],"sum_hessian":[4.0014906E0,1.4514861E0,2.5500045E0,1.2373632E0,1.3126413E0],"tree_param":{"num_deleted":"0","num_feature":"22","num_nodes":"5","size_leaf_vector":"1"}},{"base_weights":[-1.1460983E-2,-1.6298728E-1,6.4825796E-2,3.287038E-2,-9.5513366E-2],"categories":[],"categories_nodes":[],"categories_segments":[],"categories_sizes":[],"default_left":[0,0,0,0,0],"id":29,"left_children":[1,3,-1,-1,-1],"loss_changes":[2.0454761E-1,1.8387914E-1,0E0,0E0,0E0],"parents":[2147483647,0,0,1,1],"right_children":[2,4,-1,-1,-1],"split_conditions":[-8.8342965E-1,-9.072427E-1,6.4825796E-2,3.287038E-2,-9.5513366E-2],"split_indices":[5,3,0,0,0],"split_type":[0,0,0,0,0],"sum_hessian":[3.9110074E0,2.5179763E0,1.393031E0,1.0213736E0,1.4966028E0],"tree_param":{"num_deleted":"0","num_feature":"22","num_nodes":"5","size_leaf_vector":"1"}},{"base_weights":[-7.91933E-3,-6.798589E-2,1.5835272E-1,-4.6256524E-2,1.19040735E-1],"categories":[],"categories_nodes":[],"categories_segments":[],"categories_sizes":[],"default_left":[0,0,0,0,0],"id":30,"left_children":[1,-1,3,-1,-1],"loss_changes":[2.1153495E-1,0E0,3.0955645E-1,0E0,0E0],"parents":[2147483647,0,0,2,2],"right_children":[2,-1,4,-1,-1],"split_conditions":[-1.2473805E-1,-6.798589E-2,-9.731356E-1,-4.6256524E-2,1.19040735E-1],"split_indices":[17,0,14,0,0],"split_type":[0,0,0,0,0],"sum_hessian":[3.8303354E0,1.4975885E0,2.332747E0,1.1624588E0,1.1702882E0],"tree_param":{"num_deleted":"0","num_feature":"22","num_nodes":"5","size_leaf_vector":"1"}},{"base_weights":[-3.7767694E-3,-1.6175866E-1,5.4363675E-2,2.664437E-2,-9.987195E-2],"categories":[],"categories_nodes":[],"categories_segments":[],"categories_sizes":[],"default_left":[0,0,0,0,0],"id":31,"left_children":[1,3,-1,-1,-1],"loss_changes":[1.6700977E-1,1.612106E-1,0E0,0E0,0E0],"parents":[2147483647,0,0,1,1],"right_children":[2,4,-1,-1,-1],"split_conditions":[-5.061761E-1,-8.181818E-1,5.4363675E-2,2.664437E-2,-9.987195E-2],"split_indices":[21,4,0,0,0],"split_type":[0,0,0,0,0],"sum_hessian":[3.711635E0,2.069686E0,1.6419492E0,1.0351759E0,1.03451E0],"tree_param":{"num_deleted":"0","num_feature":"22","num_nodes":"5","size_leaf_vector":"1"}},{"base_weights":[-7.0962943E-3,-6.396841E-2,1.4215064E-1,-1.6819416E-2,8.12039E-2],"categories":[],"categories_nodes":[],"categories_segments":[],"categories_sizes":[],"default_left":[0,0,0,0,0],"id":32,"left_children":[1,-1,3,-1,-1],"loss_changes":[1.7297815E-1,0E0,9.8989345E-2,0E0,0E0],"parents":[2147483647,0,0,2,2],"right_children":[2,-1,4,-1,-1],"split_conditions":[-2.2363068E-1,-6.396841E-2,-5.061761E-1,-1.6819416E-2,8.12039E-2],"split_indices":[19,0,21,0,0],"split_type":[0,0,0,0,0],"sum_hessian":[3.6374068E0,1.3475506E0,2.2898562E0,1.1225204E0,1.1673359E0],"tree_param":{"num_deleted":"0","num_feature":"22","num_nodes":"5","size_leaf_vector":"1"}},{"base_weights":[-4.732747E-3,-5.835768E-2,1.4057294E-1,-4.1713905E-2,1.0780966E-1],"categories":[],"categories_nodes":[],"categories_segments":[],"categories_sizes":[],"default_left":[0,0,0,0,0],"id":33,"left_children":[1,-1,3,-1,-1],"loss_changes":[1.5350819E-1,0E0,2.4400029E-1,0E0,0E0],"parents":[2147483647,0,0,2,2],"right_children":[2,-1,4,-1,-1],"split_conditions":[-1.2473805E-1,-5.835768E-2,-9.731356E-1,-4.1713905E-2,1.0780966E-1],"split_indices":[17,0,14,0,0],"split_type":[0,0,0,0,0],"sum_hessian":[3.5747793E0,1.4032167E0,2.1715624E0,1.1132721E0,1.0582904E0],"tree_param":{"num_deleted":"0","num_feature":"22","num_nodes":"5","size_leaf_vector":"1"}},{"base_weights":[-9.68444E-4,-5.5330914E-2,1.2834823E-1,9.182422E-2,-3.9026607E-2],"categories":[],"categories_nodes":[],"categories_segments":[],"categories_sizes":[],"default_left":[0,0,0,0,0],"id":34,"left_children":[1,-1,3,-1,-1],"loss_changes":[1.3001555E-1,0E0,1.876648E-1,0E0,0E0],"parents":[2147483647,0,0,2,2],"right_children":[2,-1,4,-1,-1],"split_conditions":[-4.2932057E-1,-5.5330914E-2,-5.6166446E-1,9.182422E-2,-3.9026607E-2],"split_indices":[20,0,1,0,0],"split_type":[0,0,0,0,0],"sum_hessian":[3.482251E0,1.2634681E0,2.2187827E0,1.2054297E0,1.013353E0],"tree_param":{"num_deleted":"0","num_feature":"22","num_nodes":"5","size_leaf_vector":"1"}},{"base_weights":[-8.503102E-4,-1.289834E-1,5.843338E-2,3.290194E-2,-9.526941E-2],"categories":[],"categories_nodes":[],"categories_segments":[],"categories_sizes":[],"default_left":[0,0,0,0,0],"id":35,"left_children":[1,3,-1,-1,-1],"loss_changes":[1.3571194E-1,1.818811E-1,0E0,0E0,0E0],"parents":[2147483647,0,0,1,1],"right_children":[2,4,-1,-1,-1],"split_conditions":[-9.4245154E-1,-9.0246516E-1,5.843338E-2,3.290194E-2,-9.526941E-2],"split_indices":[14,6,0,0,0],"split_type":[0,0,0,0,0],"sum_hessian":[3.411826E0,2.2673934E0,1.1444324E0,1.1855134E0,1.08188E0],"tree_param":{"num_deleted":"0","num_feature":"22","num_nodes":"5","size_leaf_vector":"1"}},{"base_weights":[-1.7599488E-3,1.2523864E-1,-5.6638237E-2,-2.4486504E-2,8.026713E-2],"categories":[],"categories_nodes":[],"categories_segments":[],"categories_sizes":[],"default_left":[0,0,0,0,0],"id":36,"left_children":[1,3,-1,-1,-1],"loss_changes":[1.2687692E-1,1.1574222E-1,0E0,0E0,0E0],"parents":[2147483647,0,0,1,1],"right_children":[2,4,-1,-1,-1],"split_conditions":[-5.6166446E-1,-4.2932057E-1,-5.6638237E-2,-2.4486504E-2,8.026713E-2],"split_indices":[1,20,0,0,0],"split_type":[0,0,0,0,0],"sum_hessian":[3.346073E0,2.1896617E0,1.1564112E0,1.0662906E0,1.1233711E0],"tree_param":{"num_deleted":"0","num_feature":"22","num_nodes":"5","size_leaf_vector":"1"}},{"base_weights":[-1.1991488E-3,-1.2639965E-1,5.5144034E-2,2.6510658E-2,-8.773792E-2],"categories":[],"categories_nodes":[],"categories_segments":[],"categories_sizes":[],"default_left":[0,0,0,0,0],"id":37,"left_children":[1,3,-1,-1,-1],"loss_changes":[1.2259635E-1,1.382183E-1,0E0,0E0,0E0],"parents":[2147483647,0,0,1,1],"right_children":[2,4,-1,-1,-1],"split_conditions":[-8.8342965E-1,-9.0246516E-1,5.5144034E-2,2.6510658E-2,-8.773792E-2],"split_indices":[5,6,0,0,0],"split_type":[0,0,0,0,0],"sum_hessian":[3.2895796E0,2.1508653E0,1.1387143E0,1.1418893E0,1.008976E0],"tree_param":{"num_deleted":"0","num_feature":"22","num_nodes":"5","size_leaf_vector":"1"}},{"base_weights":[-2.4812664E-3,-4.694293E-2,4.5317993E-2],"categories":[],"categories_nodes":[],"categories_segments":[],"categories_sizes":[],"default_left":[0,0,0],"id":38,"left_children":[1,-1,-1],"loss_changes":[1.2373435E-1,0E0,0E0],"parents":[2147483647,0,0],"right_children":[2,-1,-1],"split_conditions":[-5.530955E-1,-4.694293E-2,4.5317993E-2],"split_indices":[21,0,0],"split_type":[0,0,0],"sum_hessian":[3.2333975E0,1.6047684E0,1.6286292E0],"tree_param":{"num_deleted":"0","num_feature":"22","num_nodes":"3","size_leaf_vector":"1"}},{"base_weights":[-2.1181093E-3,1.1715451E-1,-5.217492E-2,7.36158E-2,-2.0512577E-2],"categories":[],"categories_nodes":[],"categories_segments":[],"categories_sizes":[],"default_left":[0,0,0,0,0],"id":39,"left_children":[1,3,-1,-1,-1],"loss_changes":[1.06464006E-1,8.998853E-2,0E0,0E0,0E0],"parents":[2147483647,0,0,1,1],"right_children":[2,4,-1,-1,-1],"split_conditions":[-5.6166446E-1,-1.631335E-1,-5.217492E-2,7.36158E-2,-2.0512577E-2],"split_indices":[1,19,0,0,0],"split_type":[0,0,0,0,0],"sum_hessian":[3.2013385E0,2.077254E0,1.1240845E0,1.0375286E0,1.0397255E0],"tree_param":{"num_deleted":"0","num_feature":"22","num_nodes":"5","size_leaf_vector":"1"}},{"base_weights":[-1.1007074E-3,-5.2715138E-2,1.2113046E-1,7.403305E-2,-1.9981122E-2],"categories":[],"categories_nodes":[],"categories_segments":[],"categories_sizes":[],"default_left":[0,0,0,0,0],"id":40,"left_children":[1,-1,3,-1,-1],"loss_changes":[1.1002655E-1,0E0,8.808988E-2,0E0,0E0],"parents":[2147483647,0,0,2,2],"right_children":[2,-1,4,-1,-1],"split_conditions":[-2.2363068E-1,-5.2715138E-2,2.1407457E-1,7.403305E-2,-1.9981122E-2],"split_indices":[19,0,17,0,0],"split_type":[0,0,0,0,0],"sum_hessian":[3.1577804E0,1.1200806E0,2.0376997E0,1.0323017E0,1.0053982E0],"tree_param":{"num_deleted":"0","num_feature":"22","num_nodes":"5","size_leaf_vector":"1"}},{"base_weights":[-2.4015852E-4,-4.841154E-2,3.7738334E-2],"categories":[],"categories_nodes":[],"categories_segments":[],"categories_sizes":[],"default_left":[0,0,0],"id":41,"left_children":[1,-1,-1],"loss_changes":[1.0373861E-1,0E0,0E0],"parents":[2147483647,0,0],"right_children":[2,-1,-1],"split_conditions":[-1.2473805E-1,-4.841154E-2,3.7738334E-2],"split_indices":[17,0,0],"split_type":[0,0,0],"sum_hessian":[3.1086407E0,1.2412988E0,1.8673419E0],"tree_param":{"num_deleted":"0","num_feature":"22","num_nodes":"3","size_leaf_vector":"1"}},{"base_weights":[-2.7806277E-3,-1.1341387E-1,4.9697552E-2,-6.577992E-2,1.4300612E-2],"categories":[],"categories_nodes":[],"categories_segments":[],"categories_sizes":[],"default_left":[0,0,0,0,0],"id":42,"left_children":[1,3,-1,-1,-1],"loss_changes":[9.497846E-2,6.265099E-2,0E0,0E0,0E0],"parents":[2147483647,0,0,1,1],"right_children":[2,4,-1,-1,-1],"split_conditions":[-9.4245154E-1,4.010404E-1,4.9697552E-2,-6.577992E-2,1.4300612E-2],"split_indices":[14,15,0,0,0],"split_type":[0,0,0,0,0],"sum_hessian":[3.0885766E0,2.0613377E0,1.0272388E0,1.0259489E0,1.0353887E0],"tree_param":{"num_deleted":"0","num_feature":"22","num_nodes":"5","size_leaf_vector":"1"}},{"base_weights":[-2.4587996E-3,-3.9349046E-2,4.2059667E-2],"categories":[],"categories_nodes":[],"categories_segments":[],"categories_sizes":[],"default_left":[0,0,0],"id":43,"left_children":[1,-1,-1],"loss_changes":[9.276687E-2,0E0,0E0],"parents":[2147483647,0,0],"right_children":[2,-1,-1],"split_conditions":[-1.7849602E-3,-3.9349046E-2,4.2059667E-2],"split_indices":[16,0,0],"split_type":[0,0,0],"sum_hessian":[3.0509267E0,1.6462575E0,1.404669E0],"tree_param":{"num_deleted":"0","num_feature":"22","num_nodes":"3","size_leaf_vector":"1"}},{"base_weights":[-1.0285829E-3,3.1218098E-2,-4.6507087E-2],"categories":[],"categories_nodes":[],"categories_segments":[],"categories_sizes":[],"default_left":[0,0,0],"id":44,"left_children":[1,-1,-1],"loss_changes":[8.1354104E-2,0E0,0E0],"parents":[2147483647,0,0],"right_children":[2,-1,-1],"split_conditions":[-5.6166446E-1,3.1218098E-2,-4.6507087E-2],"split_indices":[1,0,0],"split_type":[0,0,0],"sum_hessian":[3.0302546E0,1.9938668E0,1.0363877E0],"tree_param":{"num_deleted":"0","num_feature":"22","num_nodes":"3","size_leaf_vector":"1"}},{"base_weights":[-4.5583597E-3,-3.376236E-2,4.7692914E-2],"categories":[],"categories_nodes":[],"categories_segments":[],"categories_sizes":[],"default_left":[0,0,0],"id":45,"left_children":[1,-1,-1],"loss_changes":[8.869232E-2,0E0,0E0],"parents":[2147483647,0,0],"right_children":[2,-1,-1],"split_conditions":[-8.8342965E-1,-3.376236E-2,4.7692914E-2],"split_indices":[5,0,0],"split_type":[0,0,0],"sum_hessian":[3.0093522E0,2.0003388E0,1.0090134E0],"tree_param":{"num_deleted":"0","num_feature":"22","num_nodes":"3","size_leaf_vector":"1"}},{"base_weights":[3.4796778E-4,-3.3402923E-2,4.2875458E-2],"categories":[],"categories_nodes":[],"categories_segments":[],"categories_sizes":[],"default_left":[0,0,0],"id":46,"left_children":[1,-1,-1],"loss_changes":[7.939195E-2,0E0,0E0],"parents":[2147483647,0,0],"right_children":[2,-1,-1],"split_conditions":[3.9624482E-1,-3.3402923E-2,4.2875458E-2],"split_indices":[15,0,0],"split_type":[0,0,0],"sum_hessian":[2.986419E0,1.79737E0,1.189049E0],"tree_param":{"num_deleted":"0","num_feature":"22","num_nodes":"3","size_leaf_vector":"1"}},{"base_weights":[2.6668117E-3,-3.3330902E-2,3.7850045E-2],"categories":[],"categories_nodes":[],"categories_segments":[],"categories_sizes":[],"default_left":[0,0,0],"id":47,"left_children":[1,-1,-1],"loss_changes":[6.983671E-2,0E0,0E0],"parents":[2147483647,0,0],"right_children":[2,-1,-1],"split_conditions":[-3.044636E-1,-3.3330902E-2,3.7850045E-2],"split_indices":[20,0,0],"split_type":[0,0,0],"sum_hessian":[2.9727352E0,1.5995705E0,1.3731647E0],"tree_param":{"num_deleted":"0","num_feature":"22","num_nodes":"3","size_leaf_vector":"1"}},{"base_weights":[3.0482274E-3,3.1562522E-2,-4.4258703E-2],"categories":[],"categories_nodes":[],"categories_segments":[],"categories_sizes":[],"default_left":[0,0,0],"id":48,"left_children":[1,-1,-1],"loss_changes":[7.63435E-2,0E0,0E0],"parents":[2147483647,0,0],"right_children":[2,-1,-1],"split_conditions":[-5.6166446E-1,3.1562522E-2,-4.4258703E-2],"split_indices":[1,0,0],"split_type":[0,0,0],"sum_hessian":[2.9538598E0,1.939376E0,1.0144838E0],"tree_param":{"num_deleted":"0","num_feature":"22","num_nodes":"3","size_leaf_vector":"1"}},{"base_weights":[-1.0946045E-3,-3.4038313E-2,3.659881E-2],"categories":[],"categories_nodes":[],"categories_segments":[],"categories_sizes":[],"default_left":[0,0,0],"id":49,"left_children":[1,-1,-1],"loss_changes":[6.8260714E-2,0E0,0E0],"parents":[2147483647,0,0],"right_children":[2,-1,-1],"split_conditions":[-1.7849602E-3,-3.4038313E-2,3.659881E-2],"split_indices":[16,0,0],"split_type":[0,0,0],"sum_hessian":[2.934489E0,1.5749694E0,1.3595195E0],"tree_param":{"num_deleted":"0","num_feature":"22","num_nodes":"3","size_leaf_vector":"1"}},{"base_weights":[-9.353295E-5,-3.810811E-2,3.8469985E-2],"categories":[],"categories_nodes":[],"categories_segments":[],"categories_sizes":[],"default_left":[0,0,0],"id":50,"left_children":[1,-1,-1],"loss_changes":[8.011971E-2,0E0,0E0],"parents":[2147483647,0,0],"right_children":[2,-1,-1],"split_conditions":[-4.4082853E-1,-3.810811E-2,3.8469985E-2],"split_indices":[0,0,0],"split_type":[0,0,0],"sum_hessian":[2.9186404E0,1.4723777E0,1.4462627E0],"tree_param":{"num_deleted":"0","num_feature":"22","num_nodes":"3","size_leaf_vector":"1"}},{"base_weights":[4.820675E-5,-4.149714E-2,3.2583684E-2],"categories":[],"categories_nodes":[],"categories_segments":[],"categories_sizes":[],"default_left":[0,0,0],"id":51,"left_children":[1,-1,-1],"loss_changes":[7.3610425E-2,0E0,0E0],"parents":[2147483647,0,0],"right_children":[2,-1,-1],"split_conditions":[-1.2473805E-1,-4.149714E-2,3.2583684E-2],"split_indices":[17,0,0],"split_type":[0,0,0],"sum_hessian":[2.9000046E0,1.1544551E0,1.7455497E0],"tree_param":{"num_deleted":"0","num_feature":"22","num_nodes":"3","size_leaf_vector":"1"}},{"base_weights":[-2.2593657E-3,-4.1762307E-2,2.9027922E-2],"categories":[],"categories_nodes":[],"categories_segments":[],"categories_sizes":[],"default_left":[0,0,0],"id":52,"left_children":[1,-1,-1],"loss_changes":[6.616008E-2,0E0,0E0],"parents":[2147483647,0,0],"right_children":[2,-1,-1],"split_conditions":[-9.731356E-1,-4.1762307E-2,2.9027922E-2],"split_indices":[14,0,0],"split_type":[0,0,0],"sum_hessian":[2.8855782E0,1.0405623E0,1.845016E0],"tree_param":{"num_deleted":"0","num_feature":"22","num_nodes":"3","size_leaf_vector":"1"}},{"base_weights":[-4.9019875E-3,-3.2949675E-2,3.9484933E-2],"categories":[],"categories_nodes":[],"categories_segments":[],"categories_sizes":[],"default_left":[0,0,0],"id":53,"left_children":[1,-1,-1],"loss_changes":[6.983336E-2,0E0,0E0],"parents":[2147483647,0,0],"right_children":[2,-1,-1],"split_conditions":[3.9624482E-1,-3.2949675E-2,3.9484933E-2],"split_indices":[15,0,0],"split_type":[0,0,0],"sum_hessian":[2.8658264E0,1.7309033E0,1.1349231E0],"tree_param":{"num_deleted":"0","num_feature":"22","num_nodes":"3","size_leaf_vector":"1"}},{"base_weights":[-1.719968E-3,-3.4903977E-2,3.2843634E-2],"categories":[],"categories_nodes":[],"categories_segments":[],"categories_sizes":[],"default_left":[0,0,0],"id":54,"left_children":[1,-1,-1],"loss_changes":[6.185952E-2,0E0,0E0],"parents":[2147483647,0,0],"right_children":[2,-1,-1],"split_conditions":[-5.530955E-1,-3.4903977E-2,3.2843634E-2],"split_indices":[21,0,0],"split_type":[0,0,0],"sum_hessian":[2.853816E0,1.3824528E0,1.4713632E0],"tree_param":{"num_deleted":"0","num_feature":"22","num_nodes":"3","size_leaf_vector":"1"}},{"base_weights":[-1.7366268E-3,-3.5221547E-2,3.4847036E-2],"categories":[],"categories_nodes":[],"categories_segments":[],"categories_sizes":[],"default_left":[0,0,0],"id":55,"left_children":[1,-1,-1],"loss_changes":[6.5954976E-2,0E0,0E0],"parents":[2147483647,0,0],"right_children":[2,-1,-1],"split_conditions":[-4.4082853E-1,-3.5221547E-2,3.4847036E-2],"split_indices":[0,0,0],"split_type":[0,0,0],"sum_hessian":[2.836568E0,1.433885E0,1.4026831E0],"tree_param":{"num_deleted":"0","num_feature":"22","num_nodes":"3","size_leaf_vector":"1"}},{"base_weights":[-1.3036731E-3,-3.428448E-2,3.7052065E-2],"categories":[],"categories_nodes":[],"categories_segments":[],"categories_sizes":[],"default_left":[0,0,0],"id":56,"left_children":[1,-1,-1],"loss_changes":[6.7994826E-2,0E0,0E0],"parents":[2147483647,0,0],"right_children":[2,-1,-1],"split_conditions":[-1.7849602E-3,-3.428448E-2,3.7052065E-2],"split_indices":[16,0,0],"split_type":[0,0,0],"sum_hessian":[2.8210692E0,1.525003E0,1.2960662E0],"tree_param":{"num_deleted":"0","num_feature":"22","num_nodes":"3","size_leaf_vector":"1"}},{"base_weights":[-1.6715373E-4,-3.860399E-2,3.0414576E-2],"categories":[],"categories_nodes":[],"categories_segments":[],"categories_sizes":[],"default_left":[0,0,0],"id":57,"left_children":[1,-1,-1],"loss_changes":[6.270768E-2,0E0,0E0],"parents":[2147483647,0,0],"right_children":[2,-1,-1],"split_conditions":[-1.2473805E-1,-3.860399E-2,3.0414576E-2],"split_indices":[17,0,0],"split_type":[0,0,0],"sum_hessian":[2.8054025E0,1.1203731E0,1.6850295E0],"tree_param":{"num_deleted":"0","num_feature":"22","num_nodes":"3","size_leaf_vector":"1"}},{"base_weights":[-2.2751444E-3,-3.440844E-2,3.377693E-2],"categories":[],"categories_nodes":[],"categories_segments":[],"categories_sizes":[],"default_left":[0,0,0],"id":58,"left_children":[1,-1,-1],"loss_changes":[6.1893344E-2,0E0,0E0],"parents":[2147483647,0,0],"right_children":[2,-1,-1],"split_conditions":[-4.4082853E-1,-3.440844E-2,3.377693E-2],"split_indices":[0,0,0],"split_type":[0,0,0],"sum_hessian":[2.7930465E0,1.4122964E0,1.3807501E0],"tree_param":{"num_deleted":"0","num_feature":"22","num_nodes":"3","size_leaf_vector":"1"}},{"base_weights":[-1.7532465E-3,-3.205987E-2,3.443359E-2],"categories":[],"categories_nodes":[],"categories_segments":[],"categories_sizes":[],"default_left":[0,0,0],"id":59,"left_children":[1,-1,-1],"loss_changes":[5.8550008E-2,0E0,0E0],"parents":[2147483647,0,0],"right_children":[2,-1,-1],"split_conditions":[-1.7849602E-3,-3.205987E-2,3.443359E-2],"split_indices":[16,0,0],"split_type":[0,0,0],"sum_hessian":[2.7785943E0,1.5044807E0,1.2741134E0],"tree_param":{"num_deleted":"0","num_feature":"22","num_nodes":"3","size_leaf_vector":"1"}},{"base_weights":[-5.836447E-4,3.4017995E-2,-3.208949E-2],"categories":[],"categories_nodes":[],"categories_segments":[],"categories_sizes":[],"default_left":[0,0,0],"id":60,"left_children":[1,-1,-1],"loss_changes":[5.7778873E-2,0E0,0E0],"parents":[2147483647,0,0],"right_children":[2,-1,-1],"split_conditions":[-8.459168E-1,3.4017995E-2,-3.208949E-2],"split_indices":[10,0,0],"split_type":[0,0,0],"sum_hessian":[2.7649229E0,1.3029879E0,1.4619349E0],"tree_param":{"num_deleted":"0","num_feature":"22","num_nodes":"3","size_leaf_vector":"1"}},{"base_weights":[1.2042819E-4,-3.226544E-2,3.5734184E-2],"categories":[],"categories_nodes":[],"categories_segments":[],"categories_sizes":[],"default_left":[0,0,0],"id":61,"left_children":[1,-1,-1],"loss_changes":[6.0911734E-2,0E0,0E0],"parents":[2147483647,0,0],"right_children":[2,-1,-1],"split_conditions":[-3.044636E-1,-3.226544E-2,3.5734184E-2],"split_indices":[20,0,0],"split_type":[0,0,0],"sum_hessian":[2.7542849E0,1.4964088E0,1.257876E0],"tree_param":{"num_deleted":"0","num_feature":"22","num_nodes":"3","size_leaf_vector":"1"}},{"base_weights":[1.0348185E-3,-2.9068125E-2,3.415546E-2],"categories":[],"categories_nodes":[],"categories_segments":[],"categories_sizes":[],"default_left":[0,0,0],"id":62,"left_children":[1,-1,-1],"loss_changes":[5.2330945E-2,0E0,0E0],"parents":[2147483647,0,0],"right_children":[2,-1,-1],"split_conditions":[-5.061761E-1,-2.9068125E-2,3.415546E-2],"split_indices":[21,0,0],"split_type":[0,0,0],"sum_hessian":[2.7381907E0,1.5413706E0,1.1968199E0],"tree_param":{"num_deleted":"0","num_feature":"22","num_nodes":"3","size_leaf_vector":"1"}},{"base_weights":[2.1165344E-3,-3.5670266E-2,2.9207079E-2],"categories":[],"categories_nodes":[],"categories_segments":[],"categories_sizes":[],"default_left":[0,0,0],"id":63,"left_children":[1,-1,-1],"loss_changes":[5.449018E-2,0E0,0E0],"parents":[2147483647,0,0],"right_children":[2,-1,-1],"split_conditions":[-1.2473805E-1,-3.5670266E-2,2.9207079E-2],"split_indices":[17,0,0],"split_type":[0,0,0],"sum_hessian":[2.7233472E0,1.089959E0,1.6333882E0],"tree_param":{"num_deleted":"0","num_feature":"22","num_nodes":"3","size_leaf_vector":"1"}},{"base_weights":[-2.512329E-4,-3.822633E-2,2.8129324E-2],"categories":[],"categories_nodes":[],"categories_segments":[],"categories_sizes":[],"default_left":[0,0,0],"id":64,"left_children":[1,-1,-1],"loss_changes":[5.633355E-2,0E0,0E0],"parents":[2147483647,0,0],"right_children":[2,-1,-1],"split_conditions":[-9.7307193E-1,-3.822633E-2,2.8129324E-2],"split_indices":[14,0,0],"split_type":[0,0,0],"sum_hessian":[2.712458E0,1.0019102E0,1.7105477E0],"tree_param":{"num_deleted":"0","num_feature":"22","num_nodes":"3","size_leaf_vector":"1"}},{"base_weights":[-2.91901E-3,-3.0238077E-2,3.5919886E-2],"categories":[],"categories_nodes":[],"categories_segments":[],"categories_sizes":[],"default_left":[0,0,0],"id":65,"left_children":[1,-1,-1],"loss_changes":[5.6435194E-2,0E0,0E0],"parents":[2147483647,0,0],"right_children":[2,-1,-1],"split_conditions":[3.9624482E-1,-3.0238077E-2,3.5919886E-2],"split_indices":[15,0,0],"split_type":[0,0,0],"sum_hessian":[2.6958513E0,1.5984917E0,1.0973597E0],"tree_param":{"num_deleted":"0","num_feature":"22","num_nodes":"3","size_leaf_vector":"1"}},{"base_weights":[-4.8616665E-4,-3.137718E-2,3.142991E-2],"categories":[],"categories_nodes":[],"categories_segments":[],"categories_sizes":[],"default_left":[0,0,0],"id":66,"left_children":[1,-1,-1],"loss_changes":[5.1343456E-2,0E0,0E0],"parents":[2147483647,0,0],"right_children":[2,-1,-1],"split_conditions":[-4.4082853E-1,-3.137718E-2,3.142991E-2],"split_indices":[0,0,0],"split_type":[0,0,0],"sum_hessian":[2.6857667E0,1.3534093E0,1.3323573E0],"tree_param":{"num_deleted":"0","num_feature":"22","num_nodes":"3","size_leaf_vector":"1"}},{"base_weights":[-3.1520723E-4,-3.0594554E-2,3.371435E-2],"categories":[],"categories_nodes":[],"categories_segments":[],"categories_sizes":[],"default_left":[0,0,0],"id":67,"left_children":[1,-1,-1],"loss_changes":[5.355206E-2,0E0,0E0],"parents":[2147483647,0,0],"right_children":[2,-1,-1],"split_conditions":[-1.7849602E-3,-3.0594554E-2,3.371435E-2],"split_indices":[16,0,0],"split_type":[0,0,0],"sum_hessian":[2.6736953E0,1.4556164E0,1.218079E0],"tree_param":{"num_deleted":"0","num_feature":"22","num_nodes":"3","size_leaf_vector":"1"}},{"base_weights":[6.484563E-4,-3.332336E-2,2.689951E-2],"categories":[],"categories_nodes":[],"categories_segments":[],"categories_sizes":[],"default_left":[0,0,0],"id":68,"left_children":[1,-1,-1],"loss_changes":[4.637085E-2,0E0,0E0],"parents":[2147483647,0,0],"right_children":[2,-1,-1],"split_conditions":[-1.2473805E-1,-3.332336E-2,2.689951E-2],"split_indices":[17,0,0],"split_type":[0,0,0],"sum_hessian":[2.6610606E0,1.070111E0,1.5909495E0],"tree_param":{"num_deleted":"0","num_feature":"22","num_nodes":"3","size_leaf_vector":"1"}},{"base_weights":[-1.3013863E-3,-2.7821193E-2,3.484672E-2],"categories":[],"categories_nodes":[],"categories_segments":[],"categories_sizes":[],"default_left":[0,0,0],"id":69,"left_children":[1,-1,-1],"loss_changes":[4.9990542E-2,0E0,0E0],"parents":[2147483647,0,0],"right_children":[2,-1,-1],"split_conditions":[-8.921002E-1,-2.7821193E-2,3.484672E-2],"split_indices":[5,0,0],"split_type":[0,0,0],"sum_hessian":[2.6517048E0,1.6093471E0,1.0423576E0],"tree_param":{"num_deleted":"0","num_feature":"22","num_nodes":"3","size_leaf_vector":"1"}},{"base_weights":[1.0423601E-3,3.2027327E-2,-2.9845882E-2],"categories":[],"categories_nodes":[],"categories_segments":[],"categories_sizes":[],"default_left":[0,0,0],"id":70,"left_children":[1,-1,-1],"loss_changes":[4.927839E-2,0E0,0E0],"parents":[2147483647,0,0],"right_children":[2,-1,-1],"split_conditions":[-8.459168E-1,3.2027327E-2,-2.9845882E-2],"split_indices":[10,0,0],"split_type":[0,0,0],"sum_hessian":[2.6375196E0,1.2553921E0,1.3821274E0],"tree_param":{"num_deleted":"0","num_feature":"22","num_nodes":"3","size_leaf_vector":"1"}},{"base_weights":[1.3476792E-3,-2.8330205E-2,3.2209992E-2],"categories":[],"categories_nodes":[],"categories_segments":[],"categories_sizes":[],"default_left":[0,0,0],"id":71,"left_children":[1,-1,-1],"loss_changes":[4.6982925E-2,0E0,0E0],"parents":[2147483647,0,0],"right_children":[2,-1,-1],"split_conditions":[-3.044636E-1,-2.8330205E-2,3.2209992E-2],"split_indices":[20,0,0],"split_type":[0,0,0],"sum_hessian":[2.6282659E0,1.4382062E0,1.1900597E0],"tree_param":{"num_deleted":"0","num_feature":"22","num_nodes":"3","size_leaf_vector":"1"}},{"base_weights":[2.0376602E-3,-2.700017E-2,3.1006837E-2],"categories":[],"categories_nodes":[],"categories_segments":[],"categories_sizes":[],"default_left":[0,0,0],"id":72,"left_children":[1,-1,-1],"loss_changes":[4.301757E-2,0E0,0E0],"parents":[2147483647,0,0],"right_children":[2,-1,-1],"split_conditions":[-1.7849602E-3,-2.700017E-2,3.1006837E-2],"split_indices":[16,0,0],"split_type":[0,0,0],"sum_hessian":[2.6155326E0,1.4290669E0,1.1864656E0],"tree_param":{"num_deleted":"0","num_feature":"22","num_nodes":"3","size_leaf_vector":"1"}},{"base_weights":[2.5583745E-3,-2.9695489E-2,3.0811388E-2],"categories":[],"categories_nodes":[],"categories_segments":[],"categories_sizes":[],"default_left":[0,0,0],"id":73,"left_children":[1,-1,-1],"loss_changes":[4.6828244E-2,0E0,0E0],"parents":[2147483647,0,0],"right_children":[2,-1,-1],"split_conditions":[-4.4082853E-1,-2.9695489E-2,3.0811388E-2],"split_indices":[0,0,0],"split_type":[0,0,0],"sum_hessian":[2.6052089E0,1.2993392E0,1.3058697E0],"tree_param":{"num_deleted":"0","num_feature":"22","num_nodes":"3","size_leaf_vector":"1"}},{"base_weights":[2.1200606E-3,-2.7955864E-2,3.0949235E-2],"categories":[],"categories_nodes":[],"categories_segments":[],"categories_sizes":[],"default_left":[0,0,0],"id":74,"left_children":[1,-1,-1],"loss_changes":[4.4224802E-2,0E0,0E0],"parents":[2147483647,0,0],"right_children":[2,-1,-1],"split_conditions":[-3.567633E-1,-2.7955864E-2,3.0949235E-2],"split_indices":[18,0,0],"split_type":[0,0,0],"sum_hessian":[2.5940661E0,1.3749548E0,1.2191113E0],"tree_param":{"num_deleted":"0","num_feature":"22","num_nodes":"3","size_leaf_vector":"1"}},{"base_weights":[2.3413207E-3,-2.6562331E-2,3.365585E-2],"categories":[],"categories_nodes":[],"categories_segments":[],"categories_sizes":[],"default_left":[0,0,0],"id":75,"left_children":[1,-1,-1],"loss_changes":[4.5685343E-2,0E0,0E0],"parents":[2147483647,0,0],"right_children":[2,-1,-1],"split_conditions":[3.9624482E-1,-2.6562331E-2,3.365585E-2],"split_indices":[15,0,0],"split_type":[0,0,0],"sum_hessian":[2.5813272E0,1.5187235E0,1.0626036E0],"tree_param":{"num_deleted":"0","num_feature":"22","num_nodes":"3","size_leaf_vector":"1"}},{"base_weights":[3.6479142E-3,-3.0565366E-2,2.613002E-2],"categories":[],"categories_nodes":[],"categories_segments":[],"categories_sizes":[],"default_left":[0,0,0],"id":76,"left_children":[1,-1,-1],"loss_changes":[4.0341217E-2,0E0,0E0],"parents":[2147483647,0,0],"right_children":[2,-1,-1],"split_conditions":[-1.2473805E-1,-3.0565366E-2,2.613002E-2],"split_indices":[17,0,0],"split_type":[0,0,0],"sum_hessian":[2.5729964E0,1.0386543E0,1.534342E0],"tree_param":{"num_deleted":"0","num_feature":"22","num_nodes":"3","size_leaf_vector":"1"}},{"base_weights":[1.3196634E-3,-2.5074014E-2,3.2775424E-2],"categories":[],"categories_nodes":[],"categories_segments":[],"categories_sizes":[],"default_left":[0,0,0],"id":77,"left_children":[1,-1,-1],"loss_changes":[4.1796613E-2,0E0,0E0],"parents":[2147483647,0,0],"right_children":[2,-1,-1],"split_conditions":[-8.921002E-1,-2.5074014E-2,3.2775424E-2],"split_indices":[5,0,0],"split_type":[0,0,0],"sum_hessian":[2.5647755E0,1.5618427E0,1.0029328E0],"tree_param":{"num_deleted":"0","num_feature":"22","num_nodes":"3","size_leaf_vector":"1"}},{"base_weights":[3.11787E-3,3.1495426E-2,-2.54925E-2],"categories":[],"categories_nodes":[],"categories_segments":[],"categories_sizes":[],"default_left":[0,0,0],"id":78,"left_children":[1,-1,-1],"loss_changes":[4.080208E-2,0E0,0E0],"parents":[2147483647,0,0],"right_children":[2,-1,-1],"split_conditions":[-8.9135957E-1,3.1495426E-2,-2.54925E-2],"split_indices":[3,0,0],"split_type":[0,0,0],"sum_hessian":[2.5526977E0,1.094877E0,1.4578205E0],"tree_param":{"num_deleted":"0","num_feature":"22","num_nodes":"3","size_leaf_vector":"1"}},{"base_weights":[3.8960082E-3,-2.533319E-2,3.040271E-2],"categories":[],"categories_nodes":[],"categories_segments":[],"categories_sizes":[],"default_left":[0,0,0],"id":79,"left_children":[1,-1,-1],"loss_changes":[3.9080534E-2,0E0,0E0],"parents":[2147483647,0,0],"right_children":[2,-1,-1],"split_conditions":[-1.7849602E-3,-2.533319E-2,3.040271E-2],"split_indices":[16,0,0],"split_type":[0,0,0],"sum_hessian":[2.5456939E0,1.4052217E0,1.1404722E0],"tree_param":{"num_deleted":"0","num_feature":"22","num_nodes":"3","size_leaf_vector":"1"}},{"base_weights":[4.185146E-3,-2.8554413E-2,3.0091036E-2],"categories":[],"categories_nodes":[],"categories_segments":[],"categories_sizes":[],"default_left":[0,0,0],"id":80,"left_children":[1,-1,-1],"loss_changes":[4.332052E-2,0E0,0E0],"parents":[2147483647,0,0],"right_children":[2,-1,-1],"split_conditions":[-4.4082853E-1,-2.8554413E-2,3.0091036E-2],"split_indices":[0,0,0],"split_type":[0,0,0],"sum_hessian":[2.5361433E0,1.251794E0,1.2843494E0],"tree_param":{"num_deleted":"0","num_feature":"22","num_nodes":"3","size_leaf_vector":"1"}},{"base_weights":[3.387045E-3,2.6951924E-2,-2.8856259E-2],"categories":[],"categories_nodes":[],"categories_segments":[],"categories_sizes":[],"default_left":[0,0,0],"id":81,"left_children":[1,-1,-1],"loss_changes":[3.8994294E-2,0E0,0E0],"parents":[2147483647,0,0],"right_children":[2,-1,-1],"split_conditions":[-6.9320965E-1,2.6951924E-2,-2.8856259E-2],"split_indices":[1,0,0],"split_type":[0,0,0],"sum_hessian":[2.5259178E0,1.4043747E0,1.121543E0],"tree_param":{"num_deleted":"0","num_feature":"22","num_nodes":"3","size_leaf_vector":"1"}},{"base_weights":[1.8422316E-3,-2.5766347E-2,2.947535E-2],"categories":[],"categories_nodes":[],"categories_segments":[],"categories_sizes":[],"default_left":[0,0,0],"id":82,"left_children":[1,-1,-1],"loss_changes":[3.818293E-2,0E0,0E0],"parents":[2147483647,0,0],"right_children":[2,-1,-1],"split_conditions":[-3.044636E-1,-2.5766347E-2,2.947535E-2],"split_indices":[20,0,0],"split_type":[0,0,0],"sum_hessian":[2.5167284E0,1.3748105E0,1.141918E0],"tree_param":{"num_deleted":"0","num_feature":"22","num_nodes":"3","size_leaf_vector":"1"}},{"base_weights":[2.3660043E-3,-2.7056934E-2,2.796956E-2],"categories":[],"categories_nodes":[],"categories_segments":[],"categories_sizes":[],"default_left":[0,0,0],"id":83,"left_children":[1,-1,-1],"loss_changes":[3.789692E-2,0E0,0E0],"parents":[2147483647,0,0],"right_children":[2,-1,-1],"split_conditions":[-5.530955E-1,-2.7056934E-2,2.796956E-2],"split_indices":[21,0,0],"split_type":[0,0,0],"sum_hessian":[2.5062778E0,1.2452793E0,1.2609985E0],"tree_param":{"num_deleted":"0","num_feature":"22","num_nodes":"3","size_leaf_vector":"1"}},{"base_weights":[1.9333656E-3,2.841243E-2,-2.6301349E-2],"categories":[],"categories_nodes":[],"categories_segments":[],"categories_sizes":[],"default_left":[0,0,0],"id":84,"left_children":[1,-1,-1],"loss_changes":[3.7358083E-2,0E0,0E0],"parents":[2147483647,0,0],"right_children":[2,-1,-1],"split_conditions":[-8.459168E-1,2.841243E-2,-2.6301349E-2],"split_indices":[10,0,0],"split_type":[0,0,0],"sum_hessian":[2.4951031E0,1.1978827E0,1.2972203E0],"tree_param":{"num_deleted":"0","num_feature":"22","num_nodes":"3","size_leaf_vector":"1"}},{"base_weights":[1.9724315E-3,-2.705164E-2,2.7722165E-2],"categories":[],"categories_nodes":[],"categories_segments":[],"categories_sizes":[],"default_left":[0,0,0],"id":85,"left_children":[1,-1,-1],"loss_changes":[3.739665E-2,0E0,0E0],"parents":[2147483647,0,0],"right_children":[2,-1,-1],"split_conditions":[-4.4082853E-1,-2.705164E-2,2.7722165E-2],"split_indices":[0,0,0],"split_type":[0,0,0],"sum_hessian":[2.4878E0,1.2336899E0,1.2541101E0],"tree_param":{"num_deleted":"0","num_feature":"22","num_nodes":"3","size_leaf_vector":"1"}},{"base_weights":[1.5869504E-3,-2.6160298E-2,3.0212643E-2],"categories":[],"categories_nodes":[],"categories_segments":[],"categories_sizes":[],"default_left":[0,0,0],"id":86,"left_children":[1,-1,-1],"loss_changes":[3.939929E-2,0E0,0E0],"parents":[2147483647,0,0],"right_children":[2,-1,-1],"split_conditions":[-1.7849602E-3,-2.6160298E-2,3.0212643E-2],"split_indices":[16,0,0],"split_type":[0,0,0],"sum_hessian":[2.4789214E0,1.371063E0,1.1078585E0],"tree_param":{"num_deleted":"0","num_feature":"22","num_nodes":"3","size_leaf_vector":"1"}},{"base_weights":[2.2960529E-3,-2.9945979E-2,2.5379675E-2],"categories":[],"categories_nodes":[],"categories_segments":[],"categories_sizes":[],"default_left":[0,0,0],"id":87,"left_children":[1,-1,-1],"loss_changes":[3.7603363E-2,0E0,0E0],"parents":[2147483647,0,0],"right_children":[2,-1,-1],"split_conditions":[-1.2473805E-1,-2.9945979E-2,2.5379675E-2],"split_indices":[17,0,0],"split_type":[0,0,0],"sum_hessian":[2.469442E0,1.0070829E0,1.462359E0],"tree_param":{"num_deleted":"0","num_feature":"22","num_nodes":"3","size_leaf_vector":"1"}},{"base_weights":[2.9553202E-4,2.5640016E-2,-2.9888501E-2],"categories":[],"categories_nodes":[],"categories_segments":[],"categories_sizes":[],"default_left":[0,0,0],"id":88,"left_children":[1,-1,-1],"loss_changes":[3.7976343E-2,0E0,0E0],"parents":[2147483647,0,0],"right_children":[2,-1,-1],"split_conditions":[2.699059E-1,2.5640016E-2,-2.9888501E-2],"split_indices":[17,0,0],"split_type":[0,0,0],"sum_hessian":[2.4617198E0,1.40707E0,1.0546497E0],"tree_param":{"num_deleted":"0","num_feature":"22","num_nodes":"3","size_leaf_vector":"1"}},{"base_weights":[-1.0214444E-3,2.48697E-2,-2.8656812E-2],"categories":[],"categories_nodes":[],"categories_segments":[],"categories_sizes":[],"default_left":[0,0,0],"id":89,"left_children":[1,-1,-1],"loss_changes":[3.5296243E-2,0E0,0E0],"parents":[2147483647,0,0],"right_children":[2,-1,-1],"split_conditions":[-6.9320965E-1,2.48697E-2,-2.8656812E-2],"split_indices":[1,0,0],"split_type":[0,0,0],"sum_hessian":[2.4521413E0,1.3638066E0,1.0883347E0],"tree_param":{"num_deleted":"0","num_feature":"22","num_nodes":"3","size_leaf_vector":"1"}},{"base_weights":[-1.8137768E-3,-2.8490912E-2,2.7474912E-2],"categories":[],"categories_nodes":[],"categories_segments":[],"categories_sizes":[],"default_left":[0,0,0],"id":90,"left_children":[1,-1,-1],"loss_changes":[3.8660284E-2,0E0,0E0],"parents":[2147483647,0,0],"right_children":[2,-1,-1],"split_conditions":[-4.4082853E-1,-2.8490912E-2,2.7474912E-2],"split_indices":[0,0,0],"split_type":[0,0,0],"sum_hessian":[2.4438004E0,1.2150466E0,1.2287538E0],"tree_param":{"num_deleted":"0","num_feature":"22","num_nodes":"3","size_leaf_vector":"1"}},{"base_weights":[-1.5616097E-3,-2.595592E-2,2.6837572E-2],"categories":[],"categories_nodes":[],"categories_segments":[],"categories_sizes":[],"default_left":[0,0,0],"id":91,"left_children":[1,-1,-1],"loss_changes":[3.4300707E-2,0E0,0E0],"parents":[2147483647,0,0],"right_children":[2,-1,-1],"split_conditions":[-3.567633E-1,-2.595592E-2,2.6837572E-2],"split_indices":[18,0,0],"split_type":[0,0,0],"sum_hessian":[2.4347742E0,1.2848973E0,1.1498768E0],"tree_param":{"num_deleted":"0","num_feature":"22","num_nodes":"3","size_leaf_vector":"1"}},{"base_weights":[-8.3105837E-4,-2.5568558E-2,2.4994576E-2],"categories":[],"categories_nodes":[],"categories_segments":[],"categories_sizes":[],"default_left":[0,0,0],"id":92,"left_children":[1,-1,-1],"loss_changes":[3.1421185E-2,0E0,0E0],"parents":[2147483647,0,0],"right_children":[2,-1,-1],"split_conditions":[-4.4082853E-1,-2.5568558E-2,2.4994576E-2],"split_indices":[0,0,0],"split_type":[0,0,0],"sum_hessian":[2.4245644E0,1.2040548E0,1.2205096E0],"tree_param":{"num_deleted":"0","num_feature":"22","num_nodes":"3","size_leaf_vector":"1"}},{"base_weights":[-7.4468093E-4,2.5837269E-2,-2.9472753E-2],"categories":[],"categories_nodes":[],"categories_segments":[],"categories_sizes":[],"default_left":[0,0,0],"id":93,"left_children":[1,-1,-1],"loss_changes":[3.7402336E-2,0E0,0E0],"parents":[2147483647,0,0],"right_children":[2,-1,-1],"split_conditions":[-6.9320965E-1,2.5837269E-2,-2.9472753E-2],"split_indices":[1,0,0],"split_type":[0,0,0],"sum_hessian":[2.4171057E0,1.3399172E0,1.0771885E0],"tree_param":{"num_deleted":"0","num_feature":"22","num_nodes":"3","size_leaf_vector":"1"}},{"base_weights":[-1.5860283E-3,-2.4283752E-2,2.655039E-2],"categories":[],"categories_nodes":[],"categories_segments":[],"categories_sizes":[],"default_left":[0,0,0],"id":94,"left_children":[1,-1,-1],"loss_changes":[3.153098E-2,0E0,0E0],"parents":[2147483647,0,0],"right_children":[2,-1,-1],"split_conditions":[-1.7849602E-3,-2.4283752E-2,2.655039E-2],"split_indices":[16,0,0],"split_type":[0,0,0],"sum_hessian":[2.4083233E0,1.3343449E0,1.0739784E0],"tree_param":{"num_deleted":"0","num_feature":"22","num_nodes":"3","size_leaf_vector":"1"}},{"base_weights":[-4.3699698E-4,-2.6597222E-2,2.625853E-2],"categories":[],"categories_nodes":[],"categories_segments":[],"categories_sizes":[],"default_left":[0,0,0],"id":95,"left_children":[1,-1,-1],"loss_changes":[3.415011E-2,0E0,0E0],"parents":[2147483647,0,0],"right_children":[2,-1,-1],"split_conditions":[-4.4082853E-1,-2.6597222E-2,2.625853E-2],"split_indices":[0,0,0],"split_type":[0,0,0],"sum_hessian":[2.40063E0,1.1946504E0,1.2059796E0],"tree_param":{"num_deleted":"0","num_feature":"22","num_nodes":"3","size_leaf_vector":"1"}},{"base_weights":[-3.992079E-4,-2.7632033E-2,2.334033E-2],"categories":[],"categories_nodes":[],"categories_segments":[],"categories_sizes":[],"default_left":[0,0,0],"id":96,"left_children":[1,-1,-1],"loss_changes":[3.1496596E-2,0E0,0E0],"parents":[2147483647,0,0],"right_children":[2,-1,-1],"split_conditions":[-1.0271467E-1,-2.7632033E-2,2.334033E-2],"split_indices":[17,0,0],"split_type":[0,0,0],"sum_hessian":[2.3926492E0,1.0193726E0,1.3732766E0],"tree_param":{"num_deleted":"0","num_feature":"22","num_nodes":"3","size_leaf_vector":"1"}},{"base_weights":[-1.5451534E-3,-2.4170317E-2,2.7239E-2],"categories":[],"categories_nodes":[],"categories_segments":[],"categories_sizes":[],"default_left":[0,0,0],"id":97,"left_children":[1,-1,-1],"loss_changes":[3.2025605E-2,0E0,0E0],"parents":[2147483647,0,0],"right_children":[2,-1,-1],"split_conditions":[-8.9788055E-1,-2.4170317E-2,2.7239E-2],"split_indices":[5,0,0],"split_type":[0,0,0],"sum_hessian":[2.3863266E0,1.3546096E0,1.031717E0],"tree_param":{"num_deleted":"0","num_feature":"22","num_nodes":"3","size_leaf_vector":"1"}},{"base_weights":[-1.650325E-4,2.7492372E-2,-2.6394783E-2],"categories":[],"categories_nodes":[],"categories_segments":[],"categories_sizes":[],"default_left":[0,0,0],"id":98,"left_children":[1,-1,-1],"loss_changes":[3.5289686E-2,0E0,0E0],"parents":[2147483647,0,0],"right_children":[2,-1,-1],"split_conditions":[-8.459168E-1,2.7492372E-2,-2.6394783E-2],"split_indices":[10,0,0],"split_type":[0,0,0],"sum_hessian":[2.377098E0,1.1408691E0,1.2362288E0],"tree_param":{"num_deleted":"0","num_feature":"22","num_nodes":"3","size_leaf_vector":"1"}},{"base_weights":[2.1891824E-4,-2.3572724E-2,2.6282571E-2],"categories":[],"categories_nodes":[],"categories_segments":[],"categories_sizes":[],"default_left":[0,0,0],"id":99,"left_children":[1,-1,-1],"loss_changes":[3.009024E-2,0E0,0E0],"parents":[2147483647,0,0],"right_children":[2,-1,-1],"split_conditions":[-3.044636E-1,-2.3572724E-2,2.6282571E-2],"split_indices":[20,0,0],"split_type":[0,0,0],"sum_hessian":[2.370154E0,1.2994056E0,1.0707483E0],"tree_param":{"num_deleted":"0","num_feature":"22","num_nodes":"3","size_leaf_vector":"1"}}]},"name":"gbtree"},"learner_model_param":{"base_score":"7.3717946E-1","boost_from_average":"1","num_class":"0","num_feature":"22","num_target":"1"},"objective":{"name":"binary:logistic","reg_loss_param":{"scale_pos_weight":"1"}}},"version":[3,0,2]}